{
    "numInChannels": 10,
    "numOutChannels": 2,
    "channelHeight": 5,
    "channelWidth": 6,
    "weights": [
        [
            -1.60957932472229,
            0.008004188537597656,
            2.574117660522461,
            -4.835460662841797,
            3.614903450012207,
            -4.134612083435059,
            0.06891250610351562,
            -0.8500838279724121,
            -2.633364677429199,
            0.6608552932739258,
            4.134593963623047,
            -1.4615976810455322,
            -2.968470573425293,
            -1.849194049835205,
            -4.955741882324219,
            2.256969928741455,
            -2.4013185501098633,
            -3.3367013931274414,
            -2.880506992340088,
            2.8747801780700684,
            2.6478681564331055,
            3.83760929107666,
            1.8136157989501953,
            -1.6697983741760254,
            -1.3972406387329102,
            1.4771499633789062,
            4.110173225402832,
            1.3594608306884766,
            -2.365726947784424,
            -2.3503870964050293,
            -4.727344989776611,
            1.080240249633789,
            -2.805912494659424,
            -4.457879066467285,
            4.384382247924805,
            -3.247056007385254,
            -0.5688076019287109,
            1.4324674606323242,
            0.15929174423217773,
            -3.364408493041992,
            -4.041608810424805,
            3.98541259765625,
            0.8141937255859375,
            4.148122787475586,
            -1.6762030124664307,
            1.4727773666381836,
            -1.143381118774414,
            -0.22235584259033203,
            -3.0452208518981934,
            1.691004753112793,
            1.5808296203613281,
            -0.10314273834228516,
            -1.1245107650756836,
            -3.082149028778076,
            3.457723617553711,
            -3.722120523452759,
            2.0483274459838867,
            -1.6812677383422852,
            -2.4123401641845703,
            0.8982253074645996,
            -2.5972847938537598,
            1.152024269104004,
            0.9819040298461914,
            -3.712447166442871,
            0.8324928283691406,
            2.129645824432373,
            1.9791550636291504,
            -0.6293935775756836,
            -4.09893798828125,
            -0.7707700729370117,
            1.7365384101867676,
            -1.824385643005371,
            1.8979053497314453,
            3.329813003540039,
            -2.610757827758789,
            0.04930925369262695,
            2.0674948692321777,
            0.3918890953063965,
            0.41765737533569336,
            0.6243271827697754,
            -3.9307384490966797,
            0.3929414749145508,
            3.4623489379882812,
            4.505568504333496,
            2.9387545585632324,
            0.6700153350830078,
            2.335071086883545,
            -2.4323983192443848,
            -4.143442153930664,
            -4.299605369567871,
            4.988048553466797,
            3.1739463806152344,
            -3.4561686515808105,
            1.9562129974365234,
            3.7758378982543945,
            4.998074531555176,
            4.371974945068359,
            3.8737688064575195,
            -1.1462962627410889,
            -1.7547082901000977,
            4.1052446365356445,
            2.8018980026245117,
            -3.008894920349121,
            4.495085716247559,
            2.415792942047119,
            2.725677490234375,
            -3.1338815689086914,
            1.4344987869262695,
            -1.752812385559082,
            3.906783103942871,
            -0.8997030258178711,
            1.9465627670288086,
            0.8881092071533203,
            2.1273412704467773,
            -1.6991376876831055,
            2.437856674194336,
            -3.4923548698425293,
            1.129274845123291,
            -3.3829593658447266,
            -4.932687759399414,
            -4.0152788162231445,
            3.94735050201416,
            2.7051782608032227,
            4.691078186035156,
            4.005605697631836,
            -4.465227127075195,
            -3.4121556282043457,
            -0.8079128265380859,
            -3.247161388397217,
            3.471982955932617,
            -3.780038833618164,
            -2.439507246017456,
            -4.830456733703613,
            -2.8387279510498047,
            4.112387657165527,
            4.0938005447387695,
            3.579188346862793,
            3.8606367111206055,
            4.445932388305664,
            -1.2803149223327637,
            2.200010299682617,
            4.454651832580566,
            1.6540937423706055,
            4.998381614685059,
            2.5933146476745605,
            3.1082420349121094,
            -1.7499608993530273,
            2.399137496948242,
            0.5745325088500977,
            -1.1940865516662598,
            -2.818549156188965,
            -2.8055830001831055,
            -3.8474040031433105,
            3.3566513061523438,
            3.5546560287475586,
            -0.5690631866455078,
            -2.89342999458313,
            3.864527702331543,
            3.1974449157714844,
            0.3716702461242676,
            -2.3606765270233154,
            4.595239639282227,
            2.044703483581543,
            -3.795726776123047,
            4.785414695739746,
            3.7968692779541016,
            -1.8224544525146484,
            2.8107728958129883,
            -2.840945243835449,
            -0.783571720123291,
            4.245506286621094,
            0.20659542083740234,
            -3.536090850830078,
            -1.6711645126342773,
            -1.3572258949279785,
            -0.9646439552307129,
            0.4785032272338867,
            4.624148368835449,
            0.2677016258239746,
            -3.0871999263763428,
            0.2562713623046875,
            2.3974361419677734,
            2.480201244354248,
            -4.569692611694336,
            -0.8947124481201172,
            -3.7157225608825684,
            -2.133427858352661,
            1.801466941833496,
            -3.5506510734558105,
            1.8586344718933105,
            4.243890762329102,
            0.32794189453125,
            -3.3324384689331055,
            -1.7914247512817383,
            1.0918207168579102,
            -3.8115901947021484,
            2.4840517044067383,
            -4.5393476486206055,
            -4.806466579437256,
            -4.858303070068359,
            -1.0143165588378906,
            3.3621644973754883,
            -4.732394695281982,
            4.155935287475586,
            -2.0001144409179688,
            1.4644203186035156,
            0.22801446914672852,
            -4.5085954666137695,
            4.146644592285156,
            2.6922173500061035,
            4.969978332519531,
            2.5260610580444336,
            -3.300344944000244,
            4.172918319702148,
            0.2687220573425293,
            2.371082305908203,
            -4.009145736694336,
            -1.4381325244903564,
            -4.909387588500977,
            -1.947462558746338,
            1.07865571975708,
            -3.9258086681365967,
            1.5938210487365723,
            2.6840343475341797,
            0.6965465545654297,
            -3.345416784286499,
            -3.876598358154297,
            -1.5425829887390137,
            2.194790840148926,
            4.931982040405273,
            2.8751449584960938,
            -0.5630464553833008,
            1.753082275390625,
            -4.9053144454956055,
            -4.270506381988525,
            2.3330397605895996,
            -2.832076072692871,
            2.4054784774780273,
            -3.529660701751709,
            -2.4765543937683105,
            -4.118444919586182,
            2.609203338623047,
            -0.5094757080078125,
            3.8480052947998047,
            3.0943603515625,
            2.7667131423950195,
            0.1607804298400879,
            -1.5458898544311523,
            -1.087158203125,
            0.6645030975341797,
            2.4785475730895996,
            -3.5029494762420654,
            4.196389198303223,
            -0.5436506271362305,
            -4.189727783203125,
            -2.705289125442505,
            4.424088478088379,
            4.572635650634766,
            -4.6313982009887695,
            3.526491165161133,
            2.505795955657959,
            2.959592342376709,
            4.2326459884643555,
            -2.694751739501953,
            1.5788788795471191,
            2.046165943145752,
            -1.4774668216705322,
            1.6732654571533203,
            -1.4385671615600586,
            3.091306686401367,
            -1.3872730731964111,
            -1.863978385925293,
            1.2587451934814453,
            1.773468017578125,
            -2.4428582191467285,
            0.44199180603027344,
            2.8976783752441406,
            -0.4974837303161621,
            1.5216693878173828,
            -1.205935001373291,
            1.7524981498718262,
            -3.6219711303710938,
            -2.9401440620422363,
            -2.5379526615142822,
            4.595054626464844,
            -1.3454203605651855,
            -0.013651847839355469,
            -2.4224777221679688,
            4.991450309753418,
            4.883350372314453,
            -3.770933151245117,
            -4.053349494934082,
            -3.7899649143218994,
            -0.02411365509033203,
            -1.274519443511963,
            -3.272728443145752,
            -1.793360710144043,
            0.9446544647216797,
            -2.6124536991119385,
            1.107912540435791
        ],
        [
            -1.1465792655944824,
            -2.422816753387451,
            0.686927318572998,
            4.11129093170166,
            -3.3803963661193848,
            0.23217201232910156,
            -1.8438386917114258,
            4.90653133392334,
            -4.743816375732422,
            -4.79330587387085,
            4.926924705505371,
            -3.163449764251709,
            0.9586167335510254,
            -0.4315304756164551,
            -1.0532851219177246,
            -1.1167387962341309,
            3.1772031784057617,
            0.2389850616455078,
            -4.868072986602783,
            -2.95180082321167,
            -1.7045016288757324,
            2.5160818099975586,
            -3.235668659210205,
            4.714597702026367,
            -1.1136465072631836,
            -0.8978099822998047,
            3.917790412902832,
            2.5130386352539062,
            4.240601539611816,
            2.8922219276428223,
            -1.5167694091796875,
            -3.317362070083618,
            -0.37201499938964844,
            4.138187408447266,
            -1.6780991554260254,
            -4.636849880218506,
            2.0496420860290527,
            4.86735725402832,
            -1.4234161376953125,
            -4.140117645263672,
            -4.5352983474731445,
            1.2529969215393066,
            -0.378598690032959,
            -2.5249361991882324,
            1.0106592178344727,
            1.898794174194336,
            3.976594924926758,
            3.881911277770996,
            -0.7484188079833984,
            -4.4088358879089355,
            -4.518115520477295,
            4.668447494506836,
            2.2102761268615723,
            2.179536819458008,
            -4.326105117797852,
            4.630078315734863,
            4.736715316772461,
            4.514301300048828,
            -4.217925071716309,
            -1.8866169452667236,
            -3.43881893157959,
            4.734827995300293,
            -2.148399829864502,
            -2.2827725410461426,
            2.6195645332336426,
            -2.3129618167877197,
            -2.4626107215881348,
            -0.43735742568969727,
            -0.48059749603271484,
            -3.8948922157287598,
            4.168340682983398,
            -2.205608367919922,
            1.7735743522644043,
            4.3489179611206055,
            2.5215821266174316,
            0.7078990936279297,
            4.254284858703613,
            0.6721310615539551,
            -2.3132829666137695,
            4.729997634887695,
            1.1834025382995605,
            -4.878404140472412,
            -1.4234578609466553,
            -3.4058375358581543,
            4.38376522064209,
            -0.8257293701171875,
            -4.557624340057373,
            -0.3143167495727539,
            3.140064239501953,
            1.2990021705627441,
            1.5810222625732422,
            0.46436595916748047,
            1.8640937805175781,
            -1.2182598114013672,
            -1.9890010356903076,
            -4.673542499542236,
            -3.7666845321655273,
            2.1670126914978027,
            -2.960566997528076,
            0.7173323631286621,
            1.5959572792053223,
            0.3540191650390625,
            -3.241748809814453,
            4.781641960144043,
            -2.9074974060058594,
            4.1125030517578125,
            -3.977541446685791,
            -1.202742576599121,
            2.719843864440918,
            -2.042903423309326,
            4.200214385986328,
            -3.4407825469970703,
            -4.198857307434082,
            -2.2545957565307617,
            0.8082523345947266,
            4.603778839111328,
            -2.3870043754577637,
            1.7881412506103516,
            -1.253535270690918,
            -1.0843114852905273,
            3.6765174865722656,
            -3.874929428100586,
            0.53106689453125,
            4.702045440673828,
            -0.6870608329772949,
            3.882190704345703,
            -1.5397839546203613,
            4.024810791015625,
            -4.836651802062988,
            -0.7206182479858398,
            -0.8782320022583008,
            1.6204252243041992,
            1.961637020111084,
            3.8390846252441406,
            -0.7449297904968262,
            -0.19827556610107422,
            3.424056053161621,
            -1.3528656959533691,
            4.3831682205200195,
            -3.3290605545043945,
            -0.5410490036010742,
            -0.2685546875,
            2.2310495376586914,
            3.4183807373046875,
            -0.7925186157226562,
            -4.1424031257629395,
            2.4774608612060547,
            1.4956588745117188,
            2.0084962844848633,
            -3.0843381881713867,
            3.217977523803711,
            4.735774993896484,
            0.4338569641113281,
            -4.6702423095703125,
            3.5099496841430664,
            -3.707256317138672,
            1.1493606567382812,
            0.7265892028808594,
            -2.3401827812194824,
            1.7409777641296387,
            -4.472163200378418,
            1.1387972831726074,
            -3.16975474357605,
            -0.5406684875488281,
            0.6431441307067871,
            4.259721755981445,
            -2.38560152053833,
            3.2031803131103516,
            -0.6351690292358398,
            -2.3746390342712402,
            -4.353998184204102,
            -4.587592124938965,
            4.883052825927734,
            -1.2469978332519531,
            0.24974393844604492,
            1.3555617332458496,
            3.398660659790039,
            4.267370223999023,
            4.055086135864258,
            -3.7044155597686768,
            -0.801084041595459,
            -2.958688259124756,
            -2.8567588329315186,
            1.18603515625,
            4.693240165710449,
            -4.005519866943359,
            3.026021957397461,
            -2.5923335552215576,
            -0.9738712310791016,
            3.9688549041748047,
            -1.1308515071868896,
            0.4552788734436035,
            -3.4951627254486084,
            4.256204605102539,
            -0.6463489532470703,
            -3.656952381134033,
            1.4640517234802246,
            -3.555086851119995,
            -3.967536687850952,
            0.304595947265625,
            3.9642181396484375,
            -1.4149200916290283,
            2.353334426879883,
            4.296606063842773,
            3.316305160522461,
            -2.622805118560791,
            -0.5480995178222656,
            -1.5734243392944336,
            -4.0206146240234375,
            0.0020656585693359375,
            3.7621755599975586,
            4.212577819824219,
            0.4665036201477051,
            1.135615348815918,
            -2.1646082401275635,
            3.774211883544922,
            -2.08054256439209,
            -3.47326397895813,
            0.7699675559997559,
            2.996926784515381,
            -4.507957458496094,
            4.519837379455566,
            1.7986555099487305,
            -3.503063917160034,
            -1.0770373344421387,
            4.337900161743164,
            -3.8361735343933105,
            -1.4613862037658691,
            1.6399011611938477,
            -4.380425453186035,
            2.7409911155700684,
            2.602738380432129,
            3.101027488708496,
            -3.1877355575561523,
            4.980005264282227,
            -2.9638075828552246,
            4.991702079772949,
            -4.798452377319336,
            -4.454850196838379,
            3.070981979370117,
            0.5225648880004883,
            0.28844642639160156,
            -2.768791913986206,
            -2.097377300262451,
            -1.461937427520752,
            -4.870777130126953,
            0.2598433494567871,
            0.8842945098876953,
            -0.004233360290527344,
            1.6146516799926758,
            4.744255065917969,
            1.3294200897216797,
            -1.83036208152771,
            -2.0577335357666016,
            -3.1990277767181396,
            -3.4660940170288086,
            -0.8052492141723633,
            -0.8843278884887695,
            2.2243123054504395,
            -2.1371841430664062,
            3.986018180847168,
            -3.5084009170532227,
            0.014210700988769531,
            4.494599342346191,
            4.971925735473633,
            -2.8963112831115723,
            0.8906450271606445,
            0.5906133651733398,
            -2.3442583084106445,
            -1.7274742126464844,
            1.3542699813842773,
            -3.4768259525299072,
            0.8249783515930176,
            2.163623809814453,
            -1.970350742340088,
            4.153205871582031,
            -0.3290519714355469,
            2.2685632705688477,
            4.951532363891602,
            -1.5283417701721191,
            2.717041015625,
            -1.4301462173461914,
            -0.7303647994995117,
            -0.847355842590332,
            -0.031063079833984375,
            -1.8888421058654785,
            1.1719346046447754,
            0.1884021759033203,
            3.1694488525390625,
            -1.0120267868041992,
            0.5014009475708008,
            -1.8599514961242676,
            -4.1872687339782715,
            2.023336410522461,
            0.6397895812988281,
            -2.0024185180664062,
            -1.6905248165130615,
            1.3076066970825195,
            -0.9040842056274414,
            3.2673797607421875
        ]
    ],
    "biases": [
        0.2832155227661133,
        1.8886833190917969
    ]
}